{
    "sizes": [2, 9, 6, 3, 1],
    "layers": [{
        "0": {},
        "1": {}
    }, {
        "0": {
            "bias": -4.678075313568115,
            "weights": {
                "0": -0.5171920657157898,
                "1": 2.2944774627685547
            }
        },
        "1": {
            "bias": -7.771250247955322,
            "weights": {
                "0": 1.4022232294082642,
                "1": -0.4734390079975128
            }
        },
        "2": {
            "bias": 1.869092583656311,
            "weights": {
                "0": 4.879999160766602,
                "1": -7.924453258514404
            }
        },
        "3": {
            "bias": -10.659852981567383,
            "weights": {
                "0": 8.51024055480957,
                "1": -3.5959579944610596
            }
        },
        "4": {
            "bias": -15.790262222290039,
            "weights": {
                "0": 2.1538314819335938,
                "1": 2.862546443939209
            }
        },
        "5": {
            "bias": 9.257580757141113,
            "weights": {
                "0": 0.4349018931388855,
                "1": -1.4811118841171265
            }
        },
        "6": {
            "bias": -2.665764093399048,
            "weights": {
                "0": 3.426389455795288,
                "1": 0.35403329133987427
            }
        },
        "7": {
            "bias": -16.058670043945312,
            "weights": {
                "0": 1.7183951139450073,
                "1": 3.061655044555664
            }
        },
        "8": {
            "bias": -8.486617088317871,
            "weights": {
                "0": 3.5369644165039062,
                "1": -0.22020544111728668
            }
        }
    }, {
        "0": {
            "bias": 6.319157600402832,
            "weights": {
                "0": -2.938432455062866,
                "1": -4.947269439697266,
                "2": 1.831641435623169,
                "3": -8.246517181396484,
                "4": -0.5057141780853271,
                "5": 15.341059684753418,
                "6": -2.8623528480529785,
                "7": -4.953381538391113,
                "8": -0.6882911324501038
            }
        },
        "1": {
            "bias": -0.8434286713600159,
            "weights": {
                "0": 0.45841002464294434,
                "1": 0.17580746114253998,
                "2": -2.292846202850342,
                "3": 3.0346765518188477,
                "4": -3.2334372997283936,
                "5": -4.21718168258667,
                "6": 2.682039976119995,
                "7": -0.9792528748512268,
                "8": 0.4265686869621277
            }
        },
        "2": {
            "bias": 0.12065086513757706,
            "weights": {
                "0": 4.243611812591553,
                "1": -0.9926544427871704,
                "2": -1.0028129816055298,
                "3": -5.555116176605225,
                "4": -3.6469664573669434,
                "5": -6.563891410827637,
                "6": 0.8242442607879639,
                "7": 0.5082569122314453,
                "8": -0.04074014350771904
            }
        },
        "3": {
            "bias": 6.196126937866211,
            "weights": {
                "0": -0.09872827678918839,
                "1": -7.9477691650390625,
                "2": 1.9751371145248413,
                "3": -7.66257381439209,
                "4": 1.2224555015563965,
                "5": 2.2909576892852783,
                "6": -0.4251737594604492,
                "7": -6.290610313415527,
                "8": 2.238893508911133
            }
        },
        "4": {
            "bias": -5.4609694480896,
            "weights": {
                "0": -3.72868275642395,
                "1": 2.188229560852051,
                "2": -0.5307626724243164,
                "3": -7.360370635986328,
                "4": 4.61218786239624,
                "5": 6.202386379241943,
                "6": -0.7261638641357422,
                "7": 1.1025629043579102,
                "8": 6.62509822845459
            }
        },
        "5": {
            "bias": -0.17922382056713104,
            "weights": {
                "0": -5.505459785461426,
                "1": -1.6608164310455322,
                "2": 1.3442695140838623,
                "3": -2.160442352294922,
                "4": 1.0664031505584717,
                "5": 0.6001221537590027,
                "6": -3.031569719314575,
                "7": 0.04308384284377098,
                "8": -0.6003432869911194
            }
        }
    }, {
        "0": {
            "bias": -3.386249542236328,
            "weights": {
                "0": 2.9339005947113037,
                "1": 1.8477439880371094,
                "2": 5.160298824310303,
                "3": 0.3457931578159332,
                "4": 1.7765297889709473,
                "5": -5.712656021118164
            }
        },
        "1": {
            "bias": 1.1846067905426025,
            "weights": {
                "0": -8.88598346710205,
                "1": 3.2189130783081055,
                "2": -1.2421646118164062,
                "3": -5.393120765686035,
                "4": 4.306698799133301,
                "5": -1.0082393884658813
            }
        },
        "2": {
            "bias": 2.6290676593780518,
            "weights": {
                "0": -6.863759994506836,
                "1": 3.1203787326812744,
                "2": -1.4658445119857788,
                "3": -6.916139602661133,
                "4": 1.6960591077804565,
                "5": -1.1458520889282227
            }
        }
    }, {
        "0": {
            "bias": -6.580587387084961,
            "weights": {
                "0": 8.6644926071167,
                "1": 8.691934585571289,
                "2": 8.85671329498291
            }
        }
    }],
    "outputLookup": false,
    "inputLookup": false,
    "activation": "sigmoid",
    "trainOpts": {
        "iterations": 200000,
        "errorThresh": 0.00005,
        "log": true,
        "logPeriod": 10,
        "learningRate": 0.3,
        "momentum": 0.1,
        "callbackPeriod": 10
    }
}
